digraph Tree {
node [shape=box] ;
0 [label="X[4] <= 1.5\nentropy = 1.4529\nsamples = 100\nvalue = [21, 25, 54]"] ;
1 [label="X[4] <= 0.5\nentropy = 0.9945\nsamples = 46\nvalue = [21, 25, 0]"] ;
0 -> 1 [labeldistance=2.5, labelangle=45, headlabel="True"] ;
2 [label="entropy = 0.0\nsamples = 21\nvalue = [21, 0, 0]"] ;
1 -> 2 ;
3 [label="entropy = 0.0\nsamples = 25\nvalue = [0, 25, 0]"] ;
1 -> 3 ;
4 [label="entropy = 0.0\nsamples = 54\nvalue = [0, 0, 54]"] ;
0 -> 4 [labeldistance=2.5, labelangle=-45, headlabel="False"] ;
}